<?xml version="1.0" encoding="UTF-8"?>
<BIF VERSION="0.3"  xmlns="http://www.cs.ubc.ca/labs/lci/fopi/ve/XMLBIFv0_3"
	xmlns:xsi="http://www.w3.org/2001/XMLSchema-instance"
	xsi:schemaLocation="http://www.cs.ubc.ca/labs/lci/fopi/ve/XMLBIFv0_3 http://www.cs.ubc.ca/labs/lci/fopi/ve/XMLBIFv0_3/XMLBIFv0_3.xsd">
<NETWORK>
<NAME>Untitled</NAME>
<PROPERTY>detailed = </PROPERTY>
<PROPERTY>short = </PROPERTY>

<VARIABLE TYPE="nature">
	<NAME>AL</NAME>
	<OUTCOME>T</OUTCOME>
	<OUTCOME>F</OUTCOME>
	<PROPERTY>position = (7490.32177734375, 5204.68115234375)</PROPERTY>
</VARIABLE>

<VARIABLE TYPE="nature">
	<NAME>Ear</NAME>
	<OUTCOME>T</OUTCOME>
	<OUTCOME>F</OUTCOME>
	<PROPERTY>position = (7699.2255859375, 5054.69873046875)</PROPERTY>
</VARIABLE>

<VARIABLE TYPE="nature">
	<NAME>Bur</NAME>
	<OUTCOME>T</OUTCOME>
	<OUTCOME>F</OUTCOME>
	<PROPERTY>position = (7286.77392578125, 5049.341796875)</PROPERTY>
</VARIABLE>

<VARIABLE TYPE="nature">
	<NAME>J</NAME>
	<OUTCOME>T</OUTCOME>
	<OUTCOME>F</OUTCOME>
	<PROPERTY>position = (7309.9853515625, 5399.30126953125)</PROPERTY>
</VARIABLE>

<VARIABLE TYPE="nature">
	<NAME>M</NAME>
	<OUTCOME>T</OUTCOME>
	<OUTCOME>F</OUTCOME>
	<PROPERTY>position = (7652.802734375, 5404.65771484375)</PROPERTY>
</VARIABLE>

<DEFINITION>
	<FOR>AL</FOR>
	<GIVEN>Ear</GIVEN>
	<GIVEN>Bur</GIVEN>
	<TABLE>0.95 0.05 0.29 0.71 0.94 0.06 0.001 0.999</TABLE>
</DEFINITION>

<DEFINITION>
	<FOR>Ear</FOR>
	<TABLE>0.002 0.998</TABLE>
</DEFINITION>

<DEFINITION>
	<FOR>Bur</FOR>
	<TABLE>0.001 0.999</TABLE>
</DEFINITION>

<DEFINITION>
	<FOR>J</FOR>
	<GIVEN>AL</GIVEN>
	<TABLE>0.9 0.1 0.05 0.95</TABLE>
</DEFINITION>

<DEFINITION>
	<FOR>M</FOR>
	<GIVEN>AL</GIVEN>
	<TABLE>0.7 0.3 0.01 0.99</TABLE>
</DEFINITION>
</NETWORK>
</BIF>
